tree
version=v3
num_class=1
num_tree_per_iteration=1
label_index=0
max_feature_idx=8
objective=binary sigmoid:1
feature_names=latitude longitude month cnt_past fire_past cnt_last_year fire_last_year cnt_last_year_month fire_last_year_month
feature_infos=[-40:-9] [112:154.69999999999999] [1:12] [0:104.5] [0:1] [0:111.33333333333333] [0:1] [0:337] [0:1]
tree_sizes=1205 1222 1214 1214 1212 1220 1219 1229 1228 1220 1221 1216 1230 1223 1231 1231 1232 1223 1224 1233 1218 1232 1222 1222 1227 1228 1233 1231 1231 1234 1231 1232 1232 1236 1230 1232 1229 1236 1228 1239 1232 1241 1232 1229 1225 1229 1227 1216 1231 1235 1230 1234 1221 1229 1223 1238 1235 1242

Tree=0
num_leaves=10
num_cat=0
split_feature=4 7 4 2 4 4 7 7 2
split_gain=342538 186227 48707.9 24690.5 26038.4 22118.2 12053.2 10763 10560.5
threshold=0.12500000000000003 1.0000000180025095e-35 1.0000000180025095e-35 3.5000000000000004 0.29166666666666669 0.20833333333333334 1.0000000180025095e-35 3.5000000000000004 9.5000000000000018
decision_type=2 2 2 2 2 2 2 2 2
left_child=2 3 -1 -2 -5 -3 8 -7 -4
right_child=1 5 6 4 -6 7 -8 -9 -10
leaf_value=-2.6554524143786198 -2.5388575665362598 -2.0906907259356968 -2.5771612375260657 -2.3982607349196416 -2.124466439048045 -1.9338074167086632 -2.3696982017410986 -1.6485722947574972 -2.4594237476153573
leaf_weight=107198.65732195973 10005.587686873972 3503.6016009300947 30898.755685903132 21149.983894728124 4156.0418790727854 2281.4541339799762 4170.7170731127262 3148.6369304135442 10111.276010923088
leaf_count=1592436 148633 52046 459001 314183 61738 33891 61956 46773 150203
internal_value=-2.54763 -2.30268 -2.61875 -2.40587 -2.3533 -1.8948 -2.53166 -1.76841 -2.54813
internal_weight=0 44245.3 152379 35311.6 25306 8933.69 45180.7 5430.09 41010
internal_count=2920860 657264 2263596 524554 375921 132710 671160 80664 609204
is_linear=0
shrinkage=1


Tree=1
num_leaves=10
num_cat=0
split_feature=4 7 4 2 4 7 2 0 4
split_gain=230422 53714.4 45662 14886.3 10886 8157.15 8105.77 7251.35 5925.55
threshold=0.12500000000000003 1.0000000180025095e-35 1.0000000180025095e-35 2.5000000000000004 0.20833333333333334 1.0000000180025095e-35 9.5000000000000018 -30.049999999999997 0.37500000000000006
decision_type=2 2 2 2 2 2 2 2 2
left_child=2 3 -1 -2 -5 6 -4 -8 -3
right_child=1 8 5 4 -6 -7 7 -9 -10
leaf_value=-0.10702670992562274 -0.021938876471428798 0.30113253828316783 -0.027301238854688267 0.087585604440597986 0.20302923711937579 0.13663575215753407 -0.065275267506565302 0.1213462934549206 0.45740613379127082
leaf_weight=97685.328469052911 6927.8999349623919 12130.652628675103 30126.641514994204 18238.486625045538 14793.7840141505 4844.9784353971481 2803.1235138773918 8094.1397610902786 3033.0420326888561
leaf_count=1592436 102146 108553 459001 241628 180780 61956 38637 111566 24157
internal_value=0 0.172145 -0.0683799 0.111336 0.139288 0.0139249 -0.000567362 0.0733413 0.33239
internal_weight=0 55123.9 143554 39960.2 33032.3 45868.9 41023.9 10897.3 15163.7
internal_count=2920860 657264 2263596 524554 422408 671160 609204 150203 132710
is_linear=0
shrinkage=0.1


Tree=2
num_leaves=10
num_cat=0
split_feature=4 7 4 2 2 0 0 4 4
split_gain=174669 49161.6 22619.7 7824.03 7811.82 12120.9 5700.11 5004.94 4942.12
threshold=1.0000000180025095e-35 1.5000000000000002 0.20833333333333334 3.5000000000000004 9.5000000000000018 -29.349999999999998 -18.049999999999997 0.37500000000000006 0.12500000000000003
decision_type=2 2 2 2 2 2 2 2 2
left_child=-1 2 4 6 -2 -6 -4 -5 -3
right_child=1 8 3 7 5 -7 -8 -9 -10
leaf_value=-0.10631350555675081 0.0014943338782937036 0.12856729246915052 0.14130581292879635 0.14405311488358533 -0.055808210267050462 0.12682903934437648 -0.067777704214485465 0.28160066243971643 0.25459287820120252
leaf_weight=88951.988494187593 48867.800414703786 3920.3926191329956 2451.1747846230865 14447.985401473939 4967.6080021709204 13533.239471204579 2785.7963366732001 3238.3519332557917 15084.658266320825
leaf_count=1592436 703214 44832 32677 145920 66505 166023 38546 27703 103004
internal_value=0 0.0824124 0.051643 0.137447 0.0224466 0.0777896 0.0300843 0.169238 0.228596
internal_weight=0 109297 90292 22923.3 67368.6 18500.8 5236.97 17686.3 19005.1
internal_count=2920860 1328424 1180588 244846 935742 232528 71223 173623 147836
is_linear=0
shrinkage=0.1


Tree=3
num_leaves=10
num_cat=0
split_feature=4 7 4 2 2 4 2 2 0
split_gain=145995 32836.5 14551.5 8026.9 4864.33 4481.31 5935.19 6887.5 4381.17
threshold=1.0000000180025095e-35 1.0000000180025095e-35 0.12500000000000003 2.5000000000000004 9.5000000000000018 0.29166666666666669 5.5000000000000009 2.5000000000000004 -30.349999999999998
decision_type=2 2 2 2 2 2 2 2 2
left_child=-1 2 4 -4 -2 6 7 -3 -9
right_child=1 5 3 -5 -6 -7 -8 8 -10
leaf_value=-0.10567674663856402 -0.025304682825864323 -0.020941806583890245 -0.021482089412108853 0.095466992607504353 0.049302237425614154 0.22652852864627324 0.091402707091719576 0.31660060944442397 0.15800331380004257
leaf_weight=80947.293458729982 29465.045794501901 1172.2970689088106 6891.6978680491447 39543.506982840598 12423.884811401367 8185.4802918285131 11297.318541839719 3654.250773049891 3328.1760591194034
leaf_count=1592436 459001 9715 102146 422408 150203 44572 86851 28270 25258
internal_value=0 0.0693253 0.0395585 0.07811 -0.00317693 0.164454 0.138333 0.203348 0.241005
internal_weight=0 115962 88324.1 46435.2 41888.9 27637.5 19452 8154.72 6982.43
internal_count=2920860 1328424 1133758 524554 609204 194666 150094 63243 53528
is_linear=0
shrinkage=0.1


Tree=4
num_leaves=10
num_cat=0
split_feature=4 4 7 7 2 0 2 0 2
split_gain=123747 22701.2 8643.43 5632.82 4559.33 8270.58 3695.7 4175.22 3545.46
threshold=1.0000000180025095e-35 0.20833333333333334 1.5000000000000002 1.5000000000000002 9.5000000000000018 -29.349999999999998 3.5000000000000004 -17.149999999999995 11.500000000000002
decision_type=2 2 2 2 2 2 2 2 2
left_child=-1 2 4 6 -2 -6 7 -3 -8
right_child=1 3 -4 -5 5 -7 8 -9 -10
leaf_value=-0.1051074543388056 -0.00047978852024428264 0.10261455668217029 0.11093695833962856 0.1754502947047919 -0.056526502786428783 0.090823887842665929 0.1295931239541232 -0.072031291145741444 0.0099482774185879076
leaf_weight=73620.593501552939 49587.547099471092 2964.5642786957324 11104.311529882252 12864.860571727157 5019.8468135297298 15794.45413915813 18709.294564142823 2543.1628965362906 2854.6735747531056
leaf_count=1592436 703214 34800 84162 63674 66505 166023 150472 36423 23151
internal_value=0 0.0592049 0.0289407 0.120971 0.0160076 0.055287 0.0950814 0.0219728 0.113754
internal_weight=0 121443 81506.2 39936.6 70401.8 20814.3 27071.7 5507.73 21564
internal_count=2920860 1328424 1019904 308520 935742 232528 244846 71223 173623
is_linear=0
shrinkage=0.1


Tree=5
num_leaves=10
num_cat=0
split_feature=4 4 2 7 4 6 2 2 0
split_gain=105986 18084 8755.56 6699.37 3775.48 3281.29 2445.11 2419.59 2989.41
threshold=1.0000000180025095e-35 0.12500000000000003 2.5000000000000004 2.5000000000000004 0.45833333333333343 0.12500000000000003 7.5000000000000009 9.5000000000000018 -30.249999999999996
decision_type=2 2 2 2 2 2 2 2 2
left_child=-1 7 -3 4 5 -4 -5 -2 -9
right_child=1 2 3 6 -6 -7 -8 8 -10
leaf_value=-0.10459787252770943 -0.011096054928431092 -0.016730252886047636 0.094410253909213093 0.18231427882956924 0.20115779238835352 0.042954598131644511 0.10485084299758768 -0.060034230900067237 0.056581724459303318
leaf_weight=66922.638781115413 33812.887491106987 8107.2686690911651 25828.263299949467 9343.7705756723881 2286.0379192829132 23824.816712751985 7226.0218160748482 2652.1405020058155 12843.454314507544
leaf_count=1592436 503370 109544 248142 46136 14266 203154 36022 39753 128037
internal_value=0 0.0511378 0.0815391 0.0931682 0.0755056 0.0697205 0.148533 0.00389985 0.0366224
internal_weight=0 125925 76616.2 68508.9 51939.1 49653.1 16569.8 49308.5 15495.6
internal_count=2920860 1328424 657264 547720 465562 451296 82158 671160 167790
is_linear=0
shrinkage=0.1


Tree=6
num_leaves=10
num_cat=0
split_feature=4 7 4 2 0 2 1 2 2
split_gain=91472.7 13873.9 6981.43 3599.34 2656.59 3905.32 3558.2 2641.72 2593.46
threshold=1.0000000180025095e-35 1.0000000180025095e-35 0.12500000000000003 2.5000000000000004 -14.049999999999999 5.5000000000000009 148.75000000000003 2.5000000000000004 9.5000000000000018
decision_type=2 2 2 2 2 2 2 2 2
left_child=-1 2 8 -4 5 6 7 -3 -2
right_child=1 4 3 -5 -6 -7 -8 -9 -10
leaf_value=-0.10414123908392801 -0.022376893805286822 -0.0060569525923904665 -0.019267282505453603 0.058932392772448376 0.15069353952975587 0.048310377499808592 0.0081409057057641211 0.16923264998935661 0.030283398538995261
leaf_weight=60806.077787518501 28540.48100188002 953.31055519729853 6728.6195603311062 46995.530340820551 7873.5742120295763 13867.547941729426 2087.9947772696614 8760.7923143357038 13910.36024235934
leaf_count=1592436 459001 7135 102146 422408 39615 85154 12801 49961 150203
internal_value=0 0.0445026 0.0251887 0.0491384 0.0998795 0.0842934 0.126574 0.15203 -0.00512108
internal_weight=0 129718 96175 53724.1 33543.2 25669.6 11802.1 9714.1 42450.8
internal_count=2920860 1328424 1133758 524554 194666 155051 69897 57096 609204
is_linear=0
shrinkage=0.1


Tree=7
num_leaves=10
num_cat=0
split_feature=4 4 2 4 2 0 0 2 0
split_gain=79444.9 11269.6 4185.7 3564.59 3420.12 14087.8 5840.24 3436.35 2701.17
threshold=1.0000000180025095e-35 0.20833333333333334 2.5000000000000004 0.45833333333333343 5.5000000000000009 -29.949999999999996 -30.649999999999995 9.5000000000000018 -14.749999999999998
decision_type=2 2 2 2 2 2 2 2 2
left_child=-1 2 -2 -3 5 -4 -6 8 -8
right_child=1 3 4 -5 6 -7 7 -9 -10
leaf_value=-0.10373166441767522 -0.040068781120008876 0.069214441270909144 0.17785760549215815 0.15795421703413415 -0.052228157351467491 0.0055228511883999567 -0.014780307345455905 0.056873564996842256 0.086312274395823216
leaf_weight=55225.777685970068 10924.151886697859 40816.503115653992 6892.4565138071775 5091.2377393096685 11062.847843129188 15213.742309816182 17794.890378724784 21976.423457413912 3104.1662583053112
leaf_count=1592436 169984 281436 65013 27084 141456 189963 229600 194352 29536
internal_value=0 0.038972 0.0178131 0.0790558 0.0261281 0.0592548 0.0125514 0.0292659 0.000235116
internal_weight=0 132876 86968.7 45907.7 76044.5 22106.2 53938.3 42875.5 20899.1
internal_count=2920860 1328424 1019904 308520 849920 254976 594944 453488 259136
is_linear=0
shrinkage=0.1


Tree=8
num_leaves=10
num_cat=0
split_feature=4 4 7 2 0 2 0 0 2
split_gain=69284.3 9049.13 5154.86 3203.54 2446.02 2286.78 9294.53 6490.41 3260.42
threshold=1.0000000180025095e-35 0.29166666666666669 1.0000000180025095e-35 3.5000000000000004 -17.649999999999995 5.5000000000000009 -31.749999999999996 -30.449999999999996 8.5000000000000018
decision_type=2 2 2 2 2 2 2 2 2
left_child=-1 2 3 4 -2 6 -5 -7 -9
right_child=1 -3 -4 5 -6 7 -8 8 -10
leaf_value=-0.10336396868298839 -0.0025162533731781945 0.090920834668343595 0.062126905924591913 0.25659928634999601 -0.082375152151241277 -0.051501750960186679 0.022354393308779419 -0.0060586683611151609 0.051084244697098637
leaf_weight=50139.043811380863 12947.742685638368 23301.79672094062 25350.083133466542 2005.3940485715866 5449.7814777828753 12477.656805247068 10905.170993488282 15661.017683245242 27550.29271762073
leaf_count=1592436 194461 135888 150094 22608 82745 155550 133833 195510 257735
internal_value=0 0.034208 0.0224452 0.0108824 -0.0261723 0.02082 0.0587396 0.012029 0.030374
internal_weight=0 135649 112347 86997.1 18397.5 68599.5 12910.6 55689 43211.3
internal_count=2920860 1328424 1192536 1042442 277206 765236 156441 608795 453245
is_linear=0
shrinkage=0.1


Tree=9
num_leaves=10
num_cat=0
split_feature=4 4 7 2 2 4 6 1 2
split_gain=60687.4 8144.76 3984.58 2534.67 2194.76 1939.28 1697.79 1654.14 1172.58
threshold=1.0000000180025095e-35 0.12500000000000003 2.5000000000000004 2.5000000000000004 11.500000000000002 0.37500000000000006 0.12500000000000003 144.85000000000005 9.5000000000000018
decision_type=2 2 2 2 2 2 2 2 2
left_child=-1 -2 3 7 5 6 8 -3 -5
right_child=1 2 -4 4 -6 -7 -8 -9 -10
leaf_value=-0.1030336306577439 -0.001546430118190077 -0.052415351163179552 0.088589866417484439 0.049392285770113752 -0.0097635135037872321 0.10542465736488126 0.023246828892453802 0.048047754346755754 0.099072302761935183
leaf_weight=45505.726449519396 51099.719095196575 4832.0277678519487 19488.136999517679 19946.804716579616 6738.0750263780355 5794.5492552369833 21384.986113123596 2480.130936563015 6236.3056308180094
leaf_count=1592436 671160 75283 85738 169885 51281 30341 165576 30681 48479
internal_value=0 0.0301348 0.048764 0.0372509 0.0440144 0.0508049 0.0441514 -0.0183404 0.0612251
internal_weight=0 138001 86901 67412.9 60100.7 53362.6 47568.1 7312.16 26183.1
internal_count=2920860 1328424 657264 571526 465562 414281 383940 105964 218364
is_linear=0
shrinkage=0.1


Tree=10
num_leaves=10
num_cat=0
split_feature=4 4 7 6 4 2 2 0 0
split_gain=53410.7 6345.25 3273.83 2014.23 1732.26 1268.73 1508.18 1919.9 1362.8
threshold=1.0000000180025095e-35 0.12500000000000003 1.5000000000000002 0.12500000000000003 0.54166666666666685 11.500000000000002 3.5000000000000004 -16.949999999999996 -30.649999999999995
decision_type=2 2 2 2 2 2 2 2 2
left_child=-1 -2 3 -3 5 6 7 -5 -8
right_child=1 2 -4 4 -6 -7 8 -9 -10
leaf_value=-0.10273662530006621 -0.0013936216620384979 0.047798458123080236 0.07482116017125201 0.027033011664353887 0.14639778383983018 -0.050800662499284832 -0.018250837403566641 -0.087607759852266945 0.042596884637937114
leaf_weight=41288.253464587033 51036.07579690963 34723.164161533117 23542.561933353543 2977.2579888552427 937.82370585203171 3230.1644880622625 4805.5007779449224 2868.1203170157969 15727.104288004339
leaf_count=1592436 671160 299564 103004 33802 5173 24599 38798 41385 110939
internal_value=0 0.0267055 0.0428528 0.0313219 0.0125921 0.00835383 0.0155977 -0.0292172 0.0283559
internal_weight=0 139848 88811.7 65269.1 30546 29608.1 26378 5845.38 20532.6
internal_count=2920860 1328424 657264 554260 254696 249523 224924 75187 149737
is_linear=0
shrinkage=0.1


Tree=11
num_leaves=10
num_cat=0
split_feature=4 4 2 2 0 0 1 0 2
split_gain=47148.4 5357 3537.22 3181.96 10704.6 5951.67 2690.91 2423.24 3040.07
threshold=1.0000000180025095e-35 0.29166666666666669 2.5000000000000004 5.5000000000000009 -29.649999999999995 -30.249999999999996 134.65000000000001 -18.249999999999996 3.5000000000000004
decision_type=2 2 2 2 2 2 2 2 2
left_child=-1 2 -2 4 -4 -5 7 -6 -9
right_child=1 -3 3 5 6 -7 -8 8 -10
leaf_value=-0.10246942786230021 -0.035277604490451114 0.065872172891772912 0.12759844486126193 -0.04743514776827476 -0.011514785626052647 0.023743778466963589 -0.039950565223449641 -0.047969906702110959 0.11568973822532043
leaf_weight=37451.609536215663 12614.088821392506 24846.409345742315 10874.908166695386 14730.862997282296 5956.0840988866985 57999.091048918664 8111.4518508836627 1482.1831407099962 4845.7036030814052
leaf_count=1592436 198756 135888 78318 173320 74931 522326 88308 18859 37718
internal_value=0 0.0237135 0.014731 0.0207964 0.0474725 0.00932706 0.004749 0.0342654 0.0773557
internal_weight=0 141461 116614 104000 31270.3 72730 20395.4 12284 6327.89
internal_count=2920860 1328424 1192536 993780 298134 695646 219816 131508 56577
is_linear=0
shrinkage=0.1


Tree=12
num_leaves=10
num_cat=0
split_feature=4 4 2 4 2 2 0 2 0
split_gain=41708.6 4588.33 1985.13 1812.7 1621.78 1989.31 2430.39 1594.85 5534.53
threshold=1.0000000180025095e-35 0.20833333333333334 2.5000000000000004 0.54166666666666685 11.500000000000002 3.5000000000000004 -17.049999999999997 5.5000000000000009 -28.649999999999995
decision_type=2 2 2 2 2 2 2 2 2
left_child=-1 2 -2 4 5 6 -3 8 -4
right_child=1 3 7 -5 -6 -7 -8 -9 -10
leaf_value=-0.10222892499579489 -0.034114179557697945 0.040780384995621498 0.092675003809077061 0.12644936983615682 -0.021648899730746227 0.055489770802839213 -0.080496675288637798 0.0036655199085167916 -0.0040062625156930612
leaf_weight=33963.282768890262 10095.646427460015 4712.5914025641978 9764.3232021294534 2602.3947651088238 3832.2074702680111 37213.975484937429 2544.6660590358078 56915.405527647585 15042.919447910041
leaf_count=1592436 169984 38598 73374 11808 24726 197808 35580 594944 181602
internal_value=0 0.0210708 0.00772028 0.045151 0.0407709 0.0461498 -0.00174389 0.0128883 0.0340482
internal_weight=0 142724 91818.3 50905.8 48303.4 44471.2 7257.26 81722.6 24807.2
internal_count=2920860 1328424 1019904 308520 296712 271986 74178 849920 254976
is_linear=0
shrinkage=0.1


Tree=13
num_leaves=10
num_cat=0
split_feature=4 4 7 2 0 2 4 2 0
split_gain=37006 3898.04 2283.91 1461.17 2948.11 1393.94 1283.08 1541.18 3876.03
threshold=1.0000000180025095e-35 0.12500000000000003 5.5000000000000009 3.5000000000000004 -17.149999999999995 11.500000000000002 0.37500000000000006 5.5000000000000009 -30.349999999999998
decision_type=2 2 2 2 2 2 2 2 2
left_child=-1 -2 3 4 -3 6 7 -5 -9
right_child=1 2 -4 5 -6 -7 -8 8 -10
leaf_value=-0.10201232879008287 -0.003219062762738022 0.025927445201296407 0.068269210142582859 0.05969956419348528 -0.075081886703715017 -0.011231076294905292 0.076793688833737897 -0.038102690492043068 0.037784907628139124
leaf_weight=30793.175707653165 51609.769593968987 9283.1290519870818 14021.603884115815 13258.711883246899 4195.3313446566463 7067.4154869019985 6749.0239447206259 8783.9701884835958 28790.076643429697
leaf_count=1592436 671160 95596 59194 85515 63991 52642 29797 73543 196986
internal_value=0 0.0187841 0.0311074 0.0244379 -0.00551291 0.0306823 0.0358266 0.0303874 0.0200441
internal_weight=0 143759 92149.3 78127.7 13478.5 64649.2 57581.8 50832.8 37574
internal_count=2920860 1328424 657264 598070 159587 438483 385841 356044 270529
is_linear=0
shrinkage=0.1


Tree=14
num_leaves=10
num_cat=0
split_feature=4 7 4 6 0 2 1 2 5
split_gain=32907.5 3228.21 1768.32 1558.52 1408.37 1516.26 1900.46 1402.39 1848.41
threshold=1.0000000180025095e-35 1.0000000180025095e-35 0.12500000000000003 0.12500000000000003 -14.449999999999998 5.5000000000000009 148.85000000000005 8.5000000000000018 1.0000000180025095e-35
decision_type=2 2 2 2 2 2 2 2 2
left_child=-1 2 7 -4 5 6 -3 -2 -9
right_child=1 4 3 -5 -6 -7 -8 8 -10
leaf_value=-0.10181716421518597 -0.023249604486096333 0.070870284996106828 0.032673536072208957 0.0010140640132365725 0.073750091839646995 0.0079366737476149942 -0.029074167073710244 0.044414406217458111 -0.019160739818136575
leaf_weight=27913.50448923558 24885.905540578067 11394.340087018907 34695.129219472408 28176.858165346086 10062.397728912532 14719.276905357838 2283.9356218799949 9319.8043570332229 8979.4232003241777
leaf_count=1592436 408153 55921 287292 237262 44992 81337 12416 97652 103399
internal_value=0 0.0167836 0.00778335 0.018485 0.0416028 0.0302117 0.054182 -0.00779681 0.0132181
internal_weight=0 144517 106057 62872 38460 28397.6 13678.3 43185.1 18299.2
internal_count=2920860 1328424 1133758 524554 194666 149674 68337 609204 201051
is_linear=0
shrinkage=0.1


Tree=15
num_leaves=10
num_cat=0
split_feature=4 4 2 2 0 0 1 1 2
split_gain=29314.7 2921.27 2045.84 1749.73 6046.91 4313.77 2179.11 1645.93 1471.61
threshold=1.0000000180025095e-35 0.29166666666666669 2.5000000000000004 5.5000000000000009 -30.449999999999996 -31.949999999999996 134.65000000000001 118.15000000000002 9.5000000000000018
decision_type=2 2 2 2 2 2 2 2 2
left_child=-1 2 -2 4 -4 -5 -6 -7 -9
right_child=1 -3 3 5 6 7 -8 8 -10
leaf_value=-0.10164125439507608 -0.030896324022121103 0.045497694394778965 0.090458230370214499 -0.052880418052203032 0.026363407780431586 -0.057265349354563823 -0.038820522112367188 0.0024485555042087328 0.033688850643372868
leaf_weight=25298.671297900379 11922.104761686176 25825.026013720781 11501.116345360875 11215.35036765039 12970.797875355929 3050.1964889876544 8482.5716087408364 30236.822464063764 30078.120783429593
leaf_count=1592436 198756 135888 72747 139384 133734 31255 91653 300004 225003
internal_value=0 0.0150001 0.00840694 0.0127644 0.031954 0.00428518 0.000589957 0.0144032 0.0180276
internal_weight=0 145282 119457 107535 32954.5 74580.5 21453.4 63365.1 60314.9
internal_count=2920860 1328424 1192536 993780 298134 695646 225387 556262 525007
is_linear=0
shrinkage=0.1


Tree=16
num_leaves=10
num_cat=0
split_feature=4 4 4 2 2 0 0 2 5
split_gain=26148.3 2494.32 1367.23 1322.47 1734.3 2667.59 2404.68 1627.64 2294.09
threshold=1.0000000180025095e-35 0.20833333333333334 0.62500000000000011 3.5000000000000004 5.5000000000000009 -32.249999999999993 -32.249999999999993 9.5000000000000018 1.0000000180025095e-35
decision_type=2 2 2 2 2 2 2 2 2
left_child=-1 3 -3 -2 5 -5 -6 -8 -9
right_child=1 2 -4 4 6 -7 7 8 -10
leaf_value=-0.10148262882862147 -0.021645792931256326 0.028248888928390271 0.13112735660792896 0.094424608682168024 -0.051566476254671534 0.011250882908592677 -0.010357955663258922 0.06221377400497189 0.0019511700538070971
leaf_weight=22925.144236642867 16978.011152863503 51155.66660887748 1325.255504116416 5475.51074847579 7643.8030420616269 13037.974463529885 23758.835936687887 10426.335782751441 16028.115826033056
leaf_count=1592436 254976 302712 5808 32448 113568 137536 275072 83169 123135
internal_value=0 0.0134044 0.0308468 0.00359821 0.00921022 0.0358502 0.000685799 0.00863999 0.0257021
internal_weight=0 145830 52480.9 93348.6 76370.6 18513.5 57857.1 50213.3 26454.5
internal_count=2920860 1328424 308520 1019904 764928 169984 594944 481376 206304
is_linear=0
shrinkage=0.1


Tree=17
num_leaves=10
num_cat=0
split_feature=4 7 2 0 4 2 0 0 4
split_gain=23362.2 2386.53 1579.72 2656.68 1277.24 1105.95 998.892 874.67 783.59
threshold=1.0000000180025095e-35 5.5000000000000009 3.5000000000000004 -17.649999999999995 0.12500000000000003 11.500000000000002 -13.949999999999998 -30.349999999999998 0.37500000000000006
decision_type=2 2 2 2 2 2 2 2 2
left_child=-1 2 3 -2 -4 8 7 -3 -6
right_child=1 6 4 -5 5 -7 -8 -9 -10
leaf_value=-0.10133954874660243 0.0038929348250000191 0.076315780026031718 -0.0019646736816393237 -0.073059299750283552 0.021153521552966903 -0.01600233658928283 0.084997937301047932 0.016129947170217304 0.056855816053835412
leaf_weight=20771.325333818793 17015.558258034289 3261.1974708586931 38831.54769160226 6092.8642927221954 52734.883878737688 7266.9277614429593 4896.6544149667025 9302.200738593936 6958.6698803305626
leaf_count=1592436 221532 14683 482467 102924 356044 52642 21210 47125 29797
internal_value=0 0.0119897 0.00729005 -0.0163966 0.012464 0.0208314 0.0466854 0.0317529 0.0253155
internal_weight=0 146361 128900 23108.4 105792 66960.5 17460.1 12563.4 59693.6
internal_count=2920860 1328424 1245406 324456 920950 438483 83018 61808 385841
is_linear=0
shrinkage=0.1


Tree=18
num_leaves=10
num_cat=0
split_feature=4 7 4 6 4 2 0 0 2
split_gain=20907.2 1944.86 1351.21 1165.61 890.861 889.072 1043.37 753.305 718.195
threshold=1.0000000180025095e-35 6.5000000000000009 0.12500000000000003 0.20833333333333334 0.45833333333333343 7.5000000000000009 -11.149999999999997 -14.549999999999999 8.5000000000000018
decision_type=2 2 2 2 2 2 2 2 2
left_child=-1 2 8 -4 -5 7 -7 -3 -2
right_child=1 5 3 4 -6 6 -8 -9 -10
leaf_value=-0.10121045284479749 -0.016886338358139474 0.044503217712632465 0.022397022415634682 -0.010729984306692912 0.046094963811519347 0.0039405500021125498 0.12974622260113619 0.10665943701337047 0.0077379481298401878
leaf_weight=18817.425965130329 28026.539818909019 5920.2900173962116 57385.894613318145 21729.071483917534 3160.1032891832292 6245.2704991176724 737.03118415176868 2907.4089649990201 20513.990996409208
leaf_count=1592436 435713 27991 438356 149831 15458 31176 3170 12714 214015
internal_value=0 0.0107557 0.00675192 0.0145583 -0.00351509 0.0438843 0.0172202 0.0649744 -0.00647973
internal_weight=0 146626 130816 82275.1 24889.2 15810 6982.3 8827.7 48540.5
internal_count=2920860 1328424 1253373 603645 165289 75051 34346 40705 649728
is_linear=0
shrinkage=0.1


Tree=19
num_leaves=10
num_cat=0
split_feature=4 4 2 2 0 0 1 0 0
split_gain=18731.3 1750.08 1484.35 1035.66 4919.17 3559.39 2295.53 1684.24 2141.93
threshold=1.0000000180025095e-35 0.37500000000000006 2.5000000000000004 5.5000000000000009 -28.649999999999995 -31.949999999999996 134.65000000000001 -18.349999999999998 -12.549999999999999
decision_type=2 2 2 2 2 2 2 2 2
left_child=-1 2 -2 4 -4 -5 7 -6 -9
right_child=1 -3 3 5 6 -7 -8 8 -10
leaf_value=-0.10109393622317625 -0.026520157359110522 0.045656641496800106 0.068904984140174166 -0.047474219004180467 -0.021111360372311608 0.011802155972676445 -0.045986688787454329 0.067930919006598853 -0.091823335451711091
leaf_weight=17045.336343325675 12473.587937440723 12360.508669327945 14581.624555848539 11757.222015582025 5903.2081850394607 73196.169408887625 8669.9055196493864 7136.2458026818931 951.12797372043133
leaf_count=1592436 211284 60720 90315 145075 71712 594419 90606 56799 7494
internal_value=0 0.00964502 0.00633972 0.00969402 0.0235985 0.00359853 -0.00555544 0.0194996 0.0491428
internal_weight=0 147030 134669 122196 37242.1 84953.4 22660.5 13990.6 8087.37
internal_count=2920860 1328424 1267704 1056420 316926 739494 226611 136005 64293
is_linear=0
shrinkage=0.1


Tree=20
num_leaves=10
num_cat=0
split_feature=4 4 4 2 2 0 0 2 0
split_gain=16793.3 1446.68 988.165 949.395 866.146 2949.93 849.957 798.977 915.67
threshold=1.0000000180025095e-35 0.20833333333333334 0.62500000000000011 11.500000000000002 4.5000000000000009 -14.949999999999998 -15.549999999999999 5.5000000000000009 -32.54999999999999
decision_type=2 2 2 2 2 2 2 2 2
left_child=-1 -2 3 4 5 -3 7 -6 -9
right_child=1 2 -4 -5 6 -7 -8 8 -10
leaf_value=-0.10098874927496332 0.0011792433708456855 0.030299137578562275 0.10820295199338958 -0.026938663600570179 0.064339434692426853 -0.078606401880671098 0.050378905622484094 -0.035652329807986508 0.02167268019005707
leaf_weight=15438.505389399827 93921.41957148537 9313.5189900994301 1292.0448423996568 4031.2625249549747 3245.0500456392765 3393.4279757551849 14371.255854994059 3474.002522572875 14079.038277700543
leaf_count=1592436 1019904 66488 5808 25226 15523 34416 67921 21756 71382
internal_value=0 0.00864238 0.0218182 0.019668 0.0235923 0.00121559 0.0316772 0.0187546 0.0103272
internal_weight=0 147121 53199.6 51907.6 47876.3 12706.9 35169.3 20798.1 17553
internal_count=2920860 1328424 308520 302712 277486 100904 176582 108661 93138
is_linear=0
shrinkage=0.1


Tree=21
num_leaves=10
num_cat=0
split_feature=4 2 0 2 4 2 0 0 2
split_gain=15075.2 1368.91 2428.04 1194.43 1346.89 1396.67 2431.26 2064.9 1786.41
threshold=1.0000000180025095e-35 3.5000000000000004 -17.249999999999996 11.500000000000002 0.29166666666666669 5.5000000000000009 -32.649999999999999 -32.349999999999987 9.5000000000000018
decision_type=2 2 2 2 2 2 2 2 2
left_child=-1 2 -2 4 5 6 -3 -7 -9
right_child=1 3 -4 -5 -6 7 -8 8 -10
leaf_value=-0.10089377920677228 0.0028503836897388595 0.082341922573789222 -0.073623903566310642 -0.015691137032875745 0.038728372697374142 -0.044175063548800783 0.011470353365112483 -0.0056544596382048428 0.03061696904428661
leaf_weight=13981.817637652159 18839.502651706338 6607.9346161782742 5325.2271263971925 13801.544847186655 20363.806910797954 8275.3146249428391 18096.789827022702 32842.558918312192 23149.505771592259
leaf_count=1592436 236199 35266 95907 110702 90592 111660 163490 323072 161536
internal_value=0 0.00775899 -0.0140024 0.0120295 0.0155287 0.0102188 0.0304268 0.00245067 0.00934169
internal_weight=0 147302 24164.7 123137 109336 88972.1 24704.7 64267.4 55992.1
internal_count=2920860 1328424 332106 996318 885616 795024 198756 596268 484608
is_linear=0
shrinkage=0.1


Tree=22
num_leaves=10
num_cat=0
split_feature=4 4 4 2 6 2 7 2 0
split_gain=13541.1 1208.81 945.565 838.722 742.665 1261.09 706.777 666.85 2255
threshold=1.0000000180025095e-35 0.12500000000000003 0.54166666666666685 2.5000000000000004 0.20833333333333334 10.500000000000002 7.5000000000000009 5.5000000000000009 -27.849999999999998
decision_type=2 2 2 2 2 2 2 2 2
left_child=-1 -2 3 -3 7 6 -6 8 -5
right_child=1 2 -4 4 5 -7 -8 -9 -10
leaf_value=-0.1008080032403528 -0.0053447686172032813 -0.020593873372039141 0.073817098890601104 0.080268219181354239 0.0013187359237229591 -0.042321967364348782 0.041036644854800776 0.014032117018391325 0.0080314094357040282
leaf_weight=12661.489420674741 51765.596865162253 7282.5506122671068 2540.927098326385 7268.640367500484 17240.701560243964 5319.8449168801308 6053.4298080652952 39137.623375065625 10657.93325478211
leaf_count=1592436 671160 107576 11808 36354 101449 31828 25863 265118 77268
internal_value=0 0.00696107 0.0136313 0.0119862 0.0147555 0.00160768 0.0116402 0.0213483 0.0373211
internal_weight=0 147267 95501.7 92960.7 85678.2 28614 23294.1 57064.2 17926.6
internal_count=2920860 1328424 657264 645456 537880 159140 127312 378740 113622
is_linear=0
shrinkage=0.1


Tree=23
num_leaves=10
num_cat=0
split_feature=4 7 2 0 2 6 2 0 0
split_gain=12175.4 1061.41 858.856 1959.08 716.631 787.36 621.926 770.695 598.01
threshold=1.0000000180025095e-35 7.5000000000000009 3.5000000000000004 -17.149999999999995 11.500000000000002 0.12500000000000003 7.5000000000000009 -11.149999999999997 -14.549999999999999
decision_type=2 2 2 2 2 2 2 2 2
left_child=-1 2 3 -2 -4 -6 8 -8 -3
right_child=1 6 4 -5 5 -7 7 -9 -10
leaf_value=-0.10073052407941173 0.0009103014632568338 0.031300242046021651 0.010073472457432897 -0.07117325481949241 0.0039584032056666184 -0.046985040166106308 -0.0024359633059027157 0.11381407973952831 0.089621161820819834
leaf_weight=11464.953189767897 17964.650489229709 5187.3525907546282 97303.890144601464 4771.8275009579957 8187.6563622616231 4819.8089316338301 5766.170882306993 632.88435910642147 2659.5905796736479
leaf_count=1592436 233117 24793 826137 93338 68964 38378 28878 2857 11962
internal_value=0 0.00625669 0.00347894 -0.0142183 0.00712655 -0.0149183 0.0321989 0.00906149 0.0510671
internal_weight=0 147294 133048 22736.5 110311 13007.5 14246 6399.06 7846.94
internal_count=2920860 1328424 1259934 326455 933479 107342 68490 31735 36755
is_linear=0
shrinkage=0.1


Tree=24
num_leaves=10
num_cat=0
split_feature=4 4 2 0 2 0 0 0 1
split_gain=10953.5 1060.24 875.291 1731.93 810.419 2609.42 2365.53 1743.92 2258.34
threshold=1.0000000180025095e-35 0.45833333333333343 3.5000000000000004 -17.149999999999995 5.5000000000000009 -30.049999999999997 -12.749999999999998 -32.54999999999999 134.65000000000001
decision_type=2 2 2 2 2 2 2 2 2
left_child=-1 2 3 -2 6 -6 7 -4 -9
right_child=1 -3 4 -5 5 -7 -8 8 -10
leaf_value=-0.10066051818382288 -0.00081632957423845613 0.048288939839589012 0.070919381307876658 -0.071756021195544237 -0.034509420310806296 0.01045397762571959 -0.088918969373504742 0.041727841201145137 -0.026522925400518368
leaf_weight=10380.766306037083 18355.421755485237 5601.2376276664436 7320.6645345464349 4235.7000902164727 15615.715475812554 74409.244482155889 1809.3223998732865 11892.106952432543 8184.9290600381792
leaf_count=1592436 235002 27084 37744 90333 187404 571711 12068 96588 70490
internal_value=0 0.00561629 0.00393095 -0.0141171 0.00735055 0.00265463 0.0218248 0.0291382 0.0139036
internal_weight=0 147424 141823 22591.1 119232 90025 29207 27397.7 20077
internal_count=2920860 1328424 1301340 325335 976005 759115 216890 204822 167078
is_linear=0
shrinkage=0.1


Tree=25
num_leaves=10
num_cat=0
split_feature=4 4 4 6 2 2 0 4 2
split_gain=9858.34 986.676 787.314 567.998 880.933 681.304 1200.1 976.662 525.851
threshold=1.0000000180025095e-35 0.12500000000000003 0.70833333333333337 0.20833333333333334 10.500000000000002 4.5000000000000009 -15.049999999999999 0.29166666666666669 9.5000000000000018
decision_type=2 2 2 2 2 2 2 2 2
left_child=-1 8 3 -3 5 6 -5 -7 -2
right_child=1 2 -4 4 -6 7 -8 -9 -10
leaf_value=-0.10059726759150306 -0.013547548773215229 0.015803373303930942 0.1174930926531423 0.0098404196542321958 -0.03724766989838451 -0.0038436285954374805 -0.075005484513287396 0.04179724444967918 0.0074595927898274232
leaf_weight=9398.510933060199 33413.174919027835 62916.120033957064 690.1568758636713 4978.8974785543978 5436.2136527784169 10225.873571440578 2506.2329344786704 8658.3572977483273 18520.987629413605
leaf_count=1592436 503370 456372 3312 36656 32930 60240 29204 38550 167790
internal_value=0 0.00503567 0.011073 0.0102976 -0.000593671 0.00696279 -0.0185684 0.0170826 -0.00605589
internal_weight=0 147346 95411.9 94721.7 31805.6 26369.4 7485.13 18884.2 51934.2
internal_count=2920860 1328424 657264 653952 197580 164650 65860 98790 671160
is_linear=0
shrinkage=0.1


Tree=26
num_leaves=10
num_cat=0
split_feature=4 4 2 0 0 1 1 6 7
split_gain=8879.62 868.637 658.451 636.608 602.125 602.54 641.212 569.834 717.936
threshold=1.0000000180025095e-35 0.37500000000000006 2.5000000000000004 -17.649999999999995 -32.349999999999987 133.65000000000001 121.15000000000002 0.29166666666666669 1.0000000180025095e-35
decision_type=2 2 2 2 2 2 2 2 2
left_child=-1 2 3 4 -2 6 -6 8 -4
right_child=1 -3 7 -5 5 -7 -8 -9 -10
leaf_value=-0.10054011317495302 -0.0516019210818289 0.030222175579890955 0.0023206282590303006 -0.066642992780342289 0.040858367556183578 0.035805845167968219 -0.052836323138486754 -0.016754587027510554 0.021687282705357191
leaf_weight=8508.7132094856352 2414.6113674417138 12075.224437300116 87594.092292197049 2378.9546870123595 1063.747062381357 3463.8823858834803 2330.9717835560441 11572.732435498387 24494.125149674714
leaf_count=1592436 38690 60720 860554 63462 17572 49042 42518 69910 125956
internal_value=0 0.00452355 0.00223023 -0.0204948 -0.00865594 0.00646345 -0.0234768 0.00437153 0.00655273
internal_weight=0 147388 135313 11652.2 9273.21 6858.6 3394.72 123661 112088
internal_count=2920860 1328424 1267704 211284 147822 109132 60090 1056420 986510
is_linear=0
shrinkage=0.1


Tree=27
num_leaves=10
num_cat=0
split_feature=4 4 4 6 2 0 0 2 2
split_gain=8001.39 809.06 594.268 562.045 1256.2 1172.54 968.94 717.149 1005.57
threshold=1.0000000180025095e-35 0.20833333333333334 0.79166666666666685 0.12500000000000003 9.5000000000000018 -28.649999999999995 -29.349999999999998 4.5000000000000009 2.5000000000000004
decision_type=2 2 2 2 2 2 2 2 2
left_child=-1 3 -3 4 6 -6 7 8 -2
right_child=1 2 -4 -5 5 -7 -8 -9 -10
leaf_value=-0.10048843926629275 -0.02606929934230506 0.012973463311308853 0.12694720408921364 -0.012945747491543156 -0.030295576948701719 0.032625048876045969 -0.016092221994626687 -0.0065283895393874001 0.065756203490254836
leaf_weight=7702.7594554871321 1621.8568438738585 52399.821448827162 461.50958874076605 29436.852115835994 3508.7178136631846 18997.454488344491 30131.085949014872 6337.1488942205906 4505.6059665456414
leaf_count=1592436 31096 306180 2340 281040 50112 134604 414216 77740 31096
internal_value=0 0.00406072 0.0139685 -0.00147923 0.00370554 0.0228157 -0.00639165 0.0170579 0.0414512
internal_weight=0 147400 52861.3 94538.7 65101.9 22506.2 42595.7 12464.6 6127.46
internal_count=2920860 1328424 308520 1019904 738864 184716 554148 139932 62192
is_linear=0
shrinkage=0.1


Tree=28
num_leaves=10
num_cat=0
split_feature=4 4 4 5 2 0 2 0 2
split_gain=7212.87 710.534 560.936 508.622 874.258 1024.81 764.465 470.399 469.545
threshold=1.0000000180025095e-35 0.12500000000000003 0.70833333333333337 0.20833333333333334 9.5000000000000018 -28.149999999999995 11.500000000000002 -27.649999999999995 2.5000000000000004
decision_type=2 2 2 2 2 2 2 2 2
left_child=-1 -2 3 4 7 -6 8 -3 -5
right_child=1 2 -4 6 5 -7 -8 -9 -10
leaf_value=-0.10044174253167666 -0.0058074395174551102 0.033482015297157879 0.10228311031030667 -0.021416818901091077 -0.024947912253918476 0.071703454902727573 -0.031498439550934287 -0.0034255257344538051 0.0094754202121754092
leaf_weight=6972.8205361124128 51664.416192211211 5093.2942002154887 636.84617307037115 5346.8360534179956 1384.5852617770433 5282.661941498518 5584.8551585711539 10724.961486801505 61654.897951021791
leaf_count=1592436 671160 37575 3312 80842 11880 30345 40421 89100 363789
internal_value=0 0.00364325 0.0087448 0.00811823 0.0212598 0.0516319 0.0040473 0.00845827 0.00701017
internal_weight=0 147373 95708.9 95072.1 22485.5 6667.25 72586.6 15818.3 67001.7
internal_count=2920860 1328424 657264 653952 168900 42225 485052 126675 444631
is_linear=0
shrinkage=0.1


Tree=29
num_leaves=10
num_cat=0
split_feature=4 7 5 2 0 0 3 0 2
split_gain=6505.03 666.523 615.766 718.008 1997.19 1395.12 669.069 555.679 693.756
threshold=1.0000000180025095e-35 7.5000000000000009 0.95833333333333337 8.5000000000000018 -27.849999999999998 -27.349999999999998 0.95833333333333337 -16.749999999999996 1.5000000000000002
decision_type=2 2 2 2 2 2 2 2 2
left_child=-1 2 3 5 -5 -2 -6 8 -7
right_child=1 -3 -4 4 6 7 -8 -9 -10
leaf_value=-0.10039954058941401 0.018599044111046303 0.024000124780847728 -0.0074687904149526368 -0.024854956102431405 0.010641746515299522 0.033604467470819056 0.044699443865075211 0.010207787388926262 -0.028831065446420154
leaf_weight=6311.7866061329842 20574.898322980851 14034.258447065949 51563.272057194263 8205.3748896047473 9163.6677264682949 1954.6985765844584 15567.192330960184 6429.3361531607807 19876.984171150252
leaf_count=1592436 198590 68490 437732 95425 72914 34772 105620 71305 243576
internal_value=0 0.00327097 0.00108911 0.00648549 0.0178957 -0.00120987 0.0320798 -0.0156314 -0.0232409
internal_weight=0 147370 133335 81772.2 32936.2 48835.9 24730.9 28261 21831.7
internal_count=2920860 1328424 1259934 822202 273959 548243 178534 349653 278348
is_linear=0
shrinkage=0.1


Tree=30
num_leaves=10
num_cat=0
split_feature=4 4 2 0 0 1 6 2 0
split_gain=5867.91 619.066 465.406 783.675 965.436 437.986 422.322 812.482 752.389
threshold=1.0000000180025095e-35 0.20833333333333334 10.500000000000002 -28.549999999999997 -14.749999999999998 134.85000000000005 0.12500000000000003 9.5000000000000018 -30.749999999999996
decision_type=2 2 2 2 2 2 2 2 2
left_child=-1 6 -3 -4 -5 -6 7 -2 -9
right_child=1 2 3 4 5 -7 -8 8 -10
leaf_value=-0.10036137071408487 -0.0057172145449289422 0.015864837635327821 -0.063814247184203018 0.038652047559674538 -0.063120065471969397 0.016160561845382001 -0.011934990115602683 -0.036558782563779903 0.023622529825399197
leaf_weight=5713.2022256618366 42161.560571171343 43825.483407996595 2025.4870576113462 4063.7331351861358 2008.254294373095 1067.0912094116211 29144.284403815866 2307.8677594102919 20802.144824553281
leaf_count=1592436 554148 257100 13478 21290 11042 5610 281040 40545 144171
internal_value=0 0.00292883 0.0115792 -0.00891473 0.00666126 -0.0356111 -0.00192613 0.00254291 0.0176126
internal_weight=0 147406 52990 9164.57 7139.08 3075.35 94415.9 65271.6 23110
internal_count=2920860 1328424 308520 51420 37942 16652 1019904 738864 184716
is_linear=0
shrinkage=0.1


Tree=31
num_leaves=10
num_cat=0
split_feature=4 4 6 4 2 2 0 2 2
split_gain=5295.47 575.552 467.879 490.155 467.609 373.844 637.624 605.581 341.404
threshold=1.0000000180025095e-35 0.37500000000000006 0.20833333333333334 0.12500000000000003 9.5000000000000018 4.5000000000000009 -15.749999999999998 10.500000000000002 3.5000000000000004
decision_type=2 2 2 2 2 2 2 2 2
left_child=-1 2 3 -2 8 6 -3 -7 -4
right_child=1 5 4 -5 -6 7 -8 -9 -10
leaf_value=-0.10032686641302596 -0.0038764325340532105 0.030702738133802195 -0.029637157177581166 0.0097616014486564748 -0.031746484685430378 0.048376103300751469 -0.063730439225764338 -0.012172305514613502 0.0033339462475188079
leaf_weight=5171.206666521728 46875.546768803149 1786.1551098562777 3862.9771554041654 60192.705994531512 7670.2001661844552 6843.2207858562469 1192.3093460351229 2177.4312068074942 16792.46096880734
leaf_count=1592436 618924 9816 52461 438936 52461 30360 10424 10120 104922
internal_value=0 0.0026274 0.000767117 0.00379073 -0.0106619 0.0236182 -0.00709981 0.0337608 -0.0028323
internal_weight=0 147393 135394 107068 28325.6 11999.1 2978.46 9020.65 20655.4
internal_count=2920860 1328424 1267704 1057860 209844 60720 20240 40480 157383
is_linear=0
shrinkage=0.1


Tree=32
num_leaves=10
num_cat=0
split_feature=4 7 0 5 2 0 3 0 0
split_gain=4780.73 539.922 642.644 515.994 699.887 1082.11 950.355 507.361 464.736
threshold=1.0000000180025095e-35 4.5000000000000009 -13.449999999999998 0.54166666666666685 8.5000000000000018 -27.849999999999998 1.2916666666666667 -30.649999999999995 -27.049999999999997
decision_type=2 2 2 2 2 2 2 2 2
left_child=-1 3 7 4 5 -2 8 -3 -6
right_child=1 2 -4 -5 6 -7 -8 -9 -10
leaf_value=-0.10029565687863873 0.018056006574538441 0.041471937265698242 0.053376518880311391 -0.0066636632461581817 -0.024921766996907183 -0.015850589486662191 0.03650418314239124 -0.001856128077927857 0.013025703780490203
leaf_weight=4680.4831170430407 15477.726857479662 3551.0502638220787 4062.7007264345884 60631.474373146892 4946.901506267488 24019.015295280144 14040.912268154323 11310.962733857334 9284.3095368519425
leaf_count=1592436 153115 16941 18901 536868 65021 312825 96207 56811 71735
internal_value=0 0.00236247 0.0181312 3.83475e-05 0.00603451 -0.00256349 0.0180461 0.00849645 -0.00016519
internal_weight=0 147325 18924.7 128400 67768.9 39496.7 28272.1 14862 14231.2
internal_count=2920860 1328424 92653 1235771 698903 465940 232963 73752 136756
is_linear=0
shrinkage=0.1


Tree=33
num_leaves=10
num_cat=0
split_feature=4 4 2 0 0 2 0 1 2
split_gain=4316.75 518.381 481.744 643.497 633.299 575.811 1402.61 612.251 466.717
threshold=1.0000000180025095e-35 0.54166666666666685 11.500000000000002 -14.749999999999998 -30.849999999999998 3.5000000000000004 -17.049999999999997 120.45000000000002 5.5000000000000009
decision_type=2 2 2 2 2 2 2 2 2
left_child=-1 2 5 4 -4 6 7 -2 -7
right_child=1 -3 3 -5 -6 8 -8 -9 -10
leaf_value=-0.10026744571964318 0.039907059213118018 0.048786646146024862 -0.065281007305165714 -0.067322990423743428 0.0023110841560422218 0.016905992410115228 -0.066696701487962376 -0.0083373055166664402 0.0022093915647628452
leaf_weight=4236.2071453258395 3176.9374551400542 2342.5333941727877 1613.8746150285006 2110.4276570752263 9824.6334520503879 29694.698615390807 3807.4529036302119 15293.040946012363 79348.946967218071
leaf_count=1592436 35910 11808 24759 15325 69634 219436 90549 202695 658308
internal_value=0 0.00212088 0.0013663 -0.0165866 -0.00722558 0.00321857 -0.0114315 -3.90105e-05 0.00621156
internal_weight=0 147213 144870 13548.9 11438.5 131321 22277.4 18470 109044
internal_count=2920860 1328424 1316616 109718 94393 1206898 329154 238605 877744
is_linear=0
shrinkage=0.1


Tree=34
num_leaves=10
num_cat=0
split_feature=4 4 6 2 2 0 0 2 4
split_gain=3898.34 474.534 413.225 396.816 627.317 923.146 365.571 321.077 315.381
threshold=1.0000000180025095e-35 0.29166666666666669 0.20833333333333334 10.500000000000002 4.5000000000000009 -14.749999999999998 -14.949999999999998 8.5000000000000018 0.12500000000000003
decision_type=2 2 2 2 2 2 2 2 2
left_child=-1 2 8 4 5 -3 -6 -4 -2
right_child=1 3 7 -5 6 -7 -8 -9 -10
leaf_value=-0.10024193687205739 -0.0040029041396506008 0.018343081115578704 -0.0041338999215847234 -0.01264042614244135 0.017687402313216156 -0.06679475407798012 0.04920958500441748 -0.029665365664422023 0.0072501082651533436
leaf_weight=3834.0048024673015 46829.439792918041 4248.4352987520397 13661.769408974797 4524.7786066234112 8786.8682519495487 1818.8125505596399 6329.0854782164097 7702.6940928138793 53198.847303077579
leaf_count=1592436 618924 26592 115144 22648 38868 18704 29076 57572 400896
internal_value=0 0.00189924 -0.000714507 0.0142413 0.0199833 -0.00717916 0.0308858 -0.013339 0.00198188
internal_weight=0 147101 121393 25708 21183.2 6067.25 15116 21364.5 100028
internal_count=2920860 1328424 1192536 135888 113240 45296 67944 172716 1019820
is_linear=0
shrinkage=0.1


Tree=35
num_leaves=10
num_cat=0
split_feature=4 4 2 0 0 2 0 1 3
split_gain=3521.75 471.034 398.14 538.954 553.342 463.909 1210.63 461.879 445.414
threshold=1.0000000180025095e-35 0.79166666666666685 11.500000000000002 -14.949999999999998 -30.849999999999998 3.5000000000000004 -16.949999999999996 120.45000000000002 3.4583333333333335
decision_type=2 2 2 2 2 2 2 2 2
left_child=-1 2 5 4 -4 6 7 -2 -7
right_child=1 -3 3 -5 -6 8 -8 -9 -10
leaf_value=-0.1002188549490261 0.034279787004923699 0.11074735799300622 -0.061533834265888238 -0.059680667400590061 0.0027980134756951003 0.0013434747264137901 -0.062951185667062912 -0.0070336321811089054 0.014904655634094995
leaf_weight=3469.9092427175492 3276.8697488568723 395.10730754584074 1549.6652156114578 2244.4476276785135 9744.2044827379286 74764.025303859264 3624.8362764827907 15536.478063238785 35825.300479494035
leaf_count=1592436 36009 2340 24860 16780 68867 656896 89541 205971 227160
internal_value=0 0.00170785 0.0014139 -0.0149238 -0.00602915 0.0030766 -0.0100336 0.000162253 0.00573661
internal_weight=0 146961 146566 13538.3 11293.9 133028 22438.2 18813.3 110589
internal_count=2920860 1328424 1326084 110507 93727 1215577 331521 241980 884056
is_linear=0
shrinkage=0.1


Tree=36
num_leaves=10
num_cat=0
split_feature=4 4 6 7 0 2 0 1 5
split_gain=3181.73 412.942 351.232 458.008 618.475 479.778 572.147 414.485 373.064
threshold=1.0000000180025095e-35 0.45833333333333343 0.29166666666666669 1.5000000000000002 -13.449999999999998 4.5000000000000009 -27.949999999999996 148.65000000000001 0.20833333333333334
decision_type=2 2 2 2 2 2 2 2 2
left_child=-1 2 3 8 5 6 7 -5 -2
right_child=1 -3 -4 4 -6 -7 -8 -9 -10
leaf_value=-0.1001979861354214 0.0059568155652223419 0.02903762480702405 -0.01401732613070647 0.065563565302277971 0.062480132752028718 -0.0024723645082074574 -0.010257304212120937 -0.053683509871546443 -0.0058854419304688946
leaf_weight=3140.3243882255629 49791.679229950532 5261.7207747250795 14896.730408385396 3490.0016487166286 2519.438166975975 11422.365132987499 2017.9703579172492 318.04591550678015 57118.292862139642
leaf_count=1592436 535809 27084 99204 15972 11476 58992 11213 1671 567003
internal_value=0 0.00152978 0.000507435 0.00221548 0.016199 0.00943879 0.0327916 0.0556041 -0.000370092
internal_weight=0 146836 141575 126678 19767.8 17248.4 5826.02 3808.05 106910
internal_count=2920860 1328424 1301340 1202136 99324 87848 28856 17643 1102812
is_linear=0
shrinkage=0.1


Tree=37
num_leaves=10
num_cat=0
split_feature=4 4 4 6 4 2 0 0 1
split_gain=2875.44 390.68 345.034 282.449 221.136 317.766 1664.71 1508.28 934.709
threshold=1.0000000180025095e-35 0.79166666666666685 0.12500000000000003 0.37500000000000006 0.37500000000000006 5.5000000000000009 -12.949999999999998 -30.149999999999995 134.65000000000001
decision_type=2 2 2 2 2 2 2 2 2
left_child=-1 2 -2 4 5 6 -4 -7 -9
right_child=1 -3 3 -5 -6 7 -8 8 -10
leaf_value=-0.10017910936891117 -0.0054957870012652243 0.10417270134670734 0.019322242750196124 -0.013537801923296754 0.022462786662902065 -0.036109481541038053 -0.082561299061605392 -0.0054742409309221259 0.024598958038732199
leaf_weight=2841.9911891603842 51253.880004441366 368.78972712904215 26748.488118771464 7809.2185430321842 7727.7783495578915 9420.4176715090871 1706.0130236390978 22737.775581285357 18947.510978505015
leaf_count=1592436 671160 2340 217500 44808 38988 86975 20470 137172 109011
internal_value=0 0.00137709 0.00111805 0.00468267 0.00631276 0.00474409 0.0132137 2.83837e-05 0.00819514
internal_weight=0 146720 146351 95097.2 87288 79560.2 28454.5 51105.7 41685.3
internal_count=2920860 1328424 1326084 654924 610116 571128 237970 333158 246183
is_linear=0
shrinkage=0.1


Tree=38
num_leaves=10
num_cat=0
split_feature=4 7 2 0 0 0 5 2 0
split_gain=2598.59 343.403 412.647 530.775 459.894 369.156 309.031 562.199 903.251
threshold=1.0000000180025095e-35 8.5000000000000018 7.5000000000000009 -11.149999999999997 -14.549999999999999 -30.249999999999996 0.70833333333333337 8.5000000000000018 -27.049999999999997
decision_type=2 2 2 2 2 2 2 2 2
left_child=-1 6 4 -4 5 -3 7 8 -2
right_child=1 2 3 -5 -6 -7 -8 -9 -10
leaf_value=-0.1001620335265242 0.013130762035723399 0.054470053424580001 -0.012026262022811091 0.095102780114632079 0.069601468369046876 -0.0059350289810242733 -0.0056782985787323026 0.014318582929538158 -0.015757567779841181
leaf_weight=2571.9561084397137 19081.113376695663 1544.541792370379 5275.5741395056248 506.92244068533182 2340.6634496822953 2932.8207194730639 58846.15014176257 31002.198702149093 25009.61111064814
leaf_count=1592436 184240 7473 26889 2558 11253 14690 507557 252668 321096
internal_value=0 0.00123259 0.0170154 -0.0026348 0.0336811 0.0149027 -0.000252201 0.00399993 -0.00325558
internal_weight=0 146540 12600.5 5782.5 6818.03 4477.36 133939 75092.9 44090.7
internal_count=2920860 1328424 62863 29447 33416 22163 1265561 758004 505336
is_linear=0
shrinkage=0.1


Tree=39
num_leaves=10
num_cat=0
split_feature=4 4 4 6 2 5 0 2 1
split_gain=2348.97 348.93 305.308 250.779 555.765 512.601 602.898 448.371 832.806
threshold=1.0000000180025095e-35 0.20833333333333334 0.87500000000000011 0.12500000000000003 9.5000000000000018 1.0000000180025095e-35 -26.049999999999997 5.5000000000000009 128.45000000000002
decision_type=2 2 2 2 2 2 2 2 2
left_child=-1 3 -3 4 7 -6 -7 -2 -9
right_child=1 2 -4 -5 5 6 -8 8 -10
leaf_value=-0.10014659200470243 0.0031428228339675742 0.007120390972367662 0.11856475636471764 -0.010381368704935135 0.026574627905862278 -0.043286338728033627 0.010939732904794644 -0.046532866399437711 -0.0020887750673064822
leaf_weight=2327.5427579856478 23446.98185976781 52167.944705987349 246.98646008223295 28430.485086647794 12889.622819367796 2760.7305773459375 7968.1967052966356 6493.3315573520958 12022.252925556153
leaf_count=1592436 307860 306804 1716 281040 94623 36711 53382 87568 158720
internal_value=0 0.00110787 0.00764553 -0.00253711 0.000863504 0.013134 -0.00301353 -0.0060429 -0.0176751
internal_weight=0 146427 52414.9 94011.6 65581.1 23618.6 10728.9 41962.6 18515.6
internal_count=2920860 1328424 308520 1019904 738864 184716 90093 554148 246288
is_linear=0
shrinkage=0.1


Tree=40
num_leaves=10
num_cat=0
split_feature=4 2 0 0 2 0 1 0 3
split_gain=2123.33 358.597 449.564 400.708 385.693 973.318 359.401 662.046 348.935
threshold=1.0000000180025095e-35 11.500000000000002 -14.549999999999999 -31.049999999999997 3.5000000000000004 -16.949999999999996 134.05000000000004 -25.849999999999998 4.541666666666667
decision_type=2 2 2 2 2 2 2 2 2
left_child=-1 4 3 -3 5 -2 -5 -8 -6
right_child=1 2 -4 6 8 -7 7 -9 -10
leaf_value=-0.10013261785875319 -0.00054934796878395285 -0.057071255414832468 -0.059787735775032408 -0.017087014973883145 0.0017537294184515684 -0.058560819652229104 -0.039103906303519717 0.045033062207538686 0.014745244217664343
leaf_weight=2106.3266865075566 18926.146294929087 1413.8465295433998 1888.2790048792958 5658.7419539876282 82923.80429654941 3413.8809521328658 1316.3835973329842 3229.8812172412872 27540.141972284764
leaf_count=1592436 242457 24329 14621 40561 713832 89649 9821 21370 171784
internal_value=0 0.000990315 -0.0145332 -0.00717845 0.00256917 -0.00941434 -0.000266076 0.020671 0.00499269
internal_weight=0 146311 13507.1 11618.9 132804 22340 10205 4546.26 110464
internal_count=2920860 1328424 110702 96081 1217722 332106 71752 31191 885616
is_linear=0
shrinkage=0.1


Tree=41
num_leaves=10
num_cat=0
split_feature=4 4 2 0 0 2 0 1 1
split_gain=1919.52 300.143 292.274 399.801 366.406 337.879 863.825 346.722 420.111
threshold=1.0000000180025095e-35 0.70833333333333337 11.500000000000002 -15.049999999999999 -31.049999999999997 3.5000000000000004 -16.649999999999995 120.45000000000002 132.85000000000005
decision_type=2 2 2 2 2 2 2 2 2
left_child=-1 2 5 4 -4 6 7 -2 -9
right_child=1 -3 3 -5 -6 -7 -8 8 -10
leaf_value=-0.10011998678073825 0.027757991118577793 0.077376044732285987 -0.054956090580813133 -0.052782455467021566 0.00083434255871142778 0.0042921719373714652 -0.059287827160527454 -0.033558694992004021 0.0026761419709137261
leaf_weight=1906.1114649726078 3352.7464553117752 511.16856941580772 1337.758154168725 2169.5927313119173 9806.9487017840147 110351.28296193853 2985.2791415937245 4478.6239046491683 11205.106417628005
leaf_count=1592436 36000 3312 24260 17315 68851 883408 83154 77232 134892
internal_value=0 0.000883123 0.000614735 -0.0135082 -0.00586248 0.00203524 -0.00927426 -0.00143119 -0.00767103
internal_weight=0 146199 145687 13314.3 11144.7 132373 22021.8 19036.5 15683.7
internal_count=2920860 1328424 1325112 110426 93111 1214686 331278 248124 212124
is_linear=0
shrinkage=0.1


Tree=42
num_leaves=10
num_cat=0
split_feature=4 4 4 6 2 0 0 1 1
split_gain=1735.49 287.934 258.586 243.461 254.429 1321.75 1245.41 884.079 801.189
threshold=1.0000000180025095e-35 0.12500000000000003 0.87500000000000011 0.29166666666666669 5.5000000000000009 -13.149999999999997 -30.449999999999996 150.25000000000003 149.05000000000004
decision_type=2 2 2 2 2 2 2 2 2
left_child=-1 -2 3 4 5 7 8 -3 -6
right_child=1 2 -4 -5 6 -7 -8 -9 -10
leaf_value=-0.10010854943986341 -0.0052717725646846698 0.025700888183350895 0.11268399979303503 -0.0073944781106357249 -0.04302932080767017 -0.071620179746633192 0.0090777449821281952 -0.031839841906333551 0.051648683837272759
leaf_weight=1724.9079236034304 51022.209472039714 23526.712450420484 218.57468539476395 16147.617946462706 7840.1329745277762 1706.6197439748794 41596.689895424992 3012.0301617383957 1008.7974421903491
leaf_count=1592436 671160 190290 1716 98388 74592 20715 242501 21145 7917
internal_value=0 0.000788114 0.00404078 0.00379039 0.00608555 0.0136846 0.00183072 0.0191703 -0.0322358
internal_weight=0 146079 95057.2 94838.6 78691 28245.4 50445.6 26538.7 8848.93
internal_count=2920860 1328424 657264 655548 557160 232150 325010 211435 82509
is_linear=0
shrinkage=0.1


Tree=43
num_leaves=10
num_cat=0
split_feature=4 4 6 2 0 2 1 0 5
split_gain=1569.2 293.364 273.386 266.46 968.163 805.573 742.156 622.358 575.744
threshold=1.0000000180025095e-35 0.29166666666666669 0.20833333333333334 10.500000000000002 -25.849999999999998 11.500000000000002 139.15000000000001 -14.749999999999998 1.0000000180025095e-35
decision_type=2 2 2 2 2 2 2 2 2
left_child=-1 2 3 -2 8 7 -7 -6 -5
right_child=1 -3 -4 4 5 6 -8 -9 -10
leaf_value=-0.10009820781719499 -0.0018923087207466103 0.010504928953144671 -0.011769122986506522 0.017825655459303865 0.053160062136555747 -0.020512040361494798 0.048771112536435561 -0.024739637783767601 -0.05293680811819871
leaf_weight=1560.9143157955259 78215.848942551762 25244.70371067524 20832.415226712823 1782.1654115281999 7709.0735284537077 5589.013937227428 2137.3798657432199 1182.953214161098 3240.4599369056523
leaf_count=1592436 849850 135888 172716 19308 47435 39917 14415 6897 41998
internal_value=0 0.000701577 -0.001349 0.000824875 0.0106454 0.0222734 -0.00134599 0.0427967 -0.0278283
internal_weight=0 145934 120689 99856.9 21641 16618.4 7726.39 8892.03 5022.63
internal_count=2920860 1328424 1192536 1019820 169970 108664 54332 54332 61306
is_linear=0
shrinkage=0.1


Tree=44
num_leaves=10
num_cat=0
split_feature=4 4 4 6 6 2 2 0 1
split_gain=1418.94 251.631 214.717 206.666 172.409 434.628 604.117 887.582 834.741
threshold=1.0000000180025095e-35 0.20833333333333334 0.87500000000000011 0.37500000000000006 0.12500000000000003 8.5000000000000018 5.5000000000000009 -15.35 149.25000000000003
decision_type=2 2 2 2 2 2 2 2 2
left_child=-1 4 3 -3 5 6 -2 8 -8
right_child=1 2 -4 -5 -6 -7 7 -9 -10
leaf_value=-0.10008885311431806 0.0027958888869640515 0.0082166905512461533 0.10906449601552184 -0.010548819725866812 -0.0090382796535392728 0.0095249951048879799 -0.041903586174424315 0.053420906411977324 0.041270289255516734
leaf_weight=1412.4989847179968 23420.413441209123 45282.312804331072 202.07801043242216 6742.6502230074257 28063.642697231844 28808.564224161208 10642.540066033602 1337.0425569601357 1360.9431679695845
leaf_count=1592436 307860 268884 1716 37920 281040 246288 154644 13239 16833
internal_value=0 0.00062286 0.00618422 0.0057846 -0.00247917 0.000328114 -0.00687924 -0.0238647 -0.0324734
internal_weight=0 145860 52227 52025 93633.1 65569.5 36760.9 13340.5 12003.5
internal_count=2920860 1328424 308520 306804 1019904 738864 492576 184716 171477
is_linear=0
shrinkage=0.1


Tree=45
num_leaves=10
num_cat=0
split_feature=4 7 0 2 0 2 0 0 1
split_gain=1283.19 253.383 321.417 253.259 242.58 206.701 323.515 255.6 240.014
threshold=1.0000000180025095e-35 10.500000000000002 -13.149999999999997 7.5000000000000009 -15.549999999999999 11.500000000000002 -14.549999999999999 -31.049999999999997 134.85000000000005
decision_type=2 2 2 2 2 2 2 2 2
left_child=-1 5 3 -3 -5 -2 7 -7 -8
right_child=1 2 -4 4 -6 6 8 -9 -10
leaf_value=-0.10008039396669605 0.00064507797826688338 0.021831076449231518 0.049388407933169953 0.0032538693366906436 -0.053260626357014909 -0.049471789125155846 -0.08534334800629613 -0.0010358162218052408 -0.0099647337331545301
leaf_weight=1278.1845129858702 122408.70789625496 4732.8461999297142 2207.033312253654 2622.4521633088589 1069.1654784232378 1226.1177097894251 984.94609817862511 9777.4051779136062 739.61548733711243
leaf_count=1592436 1166349 23594 10883 14362 5136 24190 8670 69484 5756
internal_value=0 0.00055336 0.0154177 0.00651814 -0.0131138 -0.000616052 -0.0127446 -0.00643302 -0.0530156
internal_weight=0 145768 10631.5 8424.46 3691.62 135137 12728.1 11003.5 1724.56
internal_count=2920860 1328424 53975 43092 19498 1274449 108100 93674 14426
is_linear=0
shrinkage=0.1


Tree=46
num_leaves=10
num_cat=0
split_feature=4 4 2 1 0 7 2 2 0
split_gain=1160.61 242.063 235.762 481.575 687.681 410.93 420.14 292.7 1691
threshold=1.0000000180025095e-35 0.45833333333333343 2.5000000000000004 143.35000000000005 -28.749999999999996 1.0000000180025095e-35 1.5000000000000002 5.5000000000000009 -12.749999999999998
decision_type=2 2 2 2 2 2 2 2 2
left_child=-1 2 3 -2 -5 6 -6 8 -4
right_child=1 -3 7 4 5 -7 -8 -9 -10
leaf_value=-0.10007273458727571 -0.031262554491103885 0.021922322576401487 0.012840439526622647 -0.030500054912322133 0.12365720137612457 -0.015398199077020853 0.024858050404511705 -0.0022016897418738603 -0.084192688126617121
leaf_weight=1156.6331700200681 6694.0889636650681 5088.5755744352937 37216.545915015042 2159.065885130316 849.75177920795977 742.19534760713577 872.20093907043338 90152.180370163172 1887.0555217619985
leaf_count=1592436 150092 27084 307233 31592 14600 5172 15434 759115 18102
internal_value=0 0.00049616 -0.000279441 -0.0141196 0.0107023 0.0468035 0.0736136 0.000932364 0.00815783
internal_weight=0 145662 140573 11317.3 4623.21 2464.15 1721.95 129256 39103.6
internal_count=2920860 1328424 1301340 216890 66798 35206 30034 1084450 325335
is_linear=0
shrinkage=0.1


Tree=47
num_leaves=10
num_cat=0
split_feature=4 4 4 6 2 2 0 0 1
split_gain=1049.64 211.444 191.894 188.115 229.59 439.792 341.814 305.252 266.989
threshold=1.0000000180025095e-35 0.12500000000000003 0.87500000000000011 0.29166666666666669 4.5000000000000009 9.5000000000000018 -16.249999999999996 -15.35 135.65000000000001
decision_type=2 2 2 2 2 2 2 2 2
left_child=-1 -2 3 -3 7 6 -6 -5 -7
right_child=1 2 -4 4 5 8 -8 -9 -10
leaf_value=-0.10006581041976173 -0.0047742871682705827 0.0050388991029178118 0.10518929438457891 -0.0062701919104992789 -0.011792317979102466 -0.050052651167227791 0.030205008116766241 -0.06611214916941055 -0.0003318651854196398
leaf_weight=1046.6337497869972 50723.57086728327 78613.55955302529 184.21299733221531 2242.5468889512122 3230.6514251753688 2243.0785931944847 4843.3467349857092 1375.084792079404 2082.7964424937963
leaf_count=1592436 671160 557160 1716 15480 17060 12993 23935 17316 11604
internal_value=0 0.000436972 0.00322485 0.00302636 -0.00685112 -0.000384422 0.0134006 -0.0290165 -0.0261134
internal_weight=0 145539 94815.3 94631.1 16017.5 12399.9 8074 3617.63 4325.88
internal_count=2920860 1328424 657264 655548 98388 65592 40995 32796 24597
is_linear=0
shrinkage=0.1


Tree=48
num_leaves=10
num_cat=0
split_feature=4 4 2 0 2 0 0 1 0
split_gain=949.48 206.266 211.443 687.644 350.753 1556.99 1222.81 1243.25 1056.57
threshold=1.0000000180025095e-35 0.54166666666666685 3.5000000000000004 -16.349999999999998 5.5000000000000009 -12.549999999999999 -32.649999999999999 118.75000000000001 -33.04999999999999
decision_type=2 2 2 2 2 2 2 2 2
left_child=-1 2 3 -2 5 8 -6 -8 -4
right_child=1 -3 4 -5 6 -7 7 -9 -10
leaf_value=-0.10005954430986296 -0.0027949006311922923 0.03139911580192082 0.050759942052062912 -0.059111019847878171 -0.036272449532794675 -0.087868448386606957 -0.050082177636715013 0.005177079452782259 0.0054509884391417398
leaf_weight=947.08961353381164 19000.562387729064 2114.2061569690704 6749.578374132514 2447.4801071649417 9118.166724069044 1513.896546214819 4294.1191485524178 78515.721688227728 21673.000331424177
leaf_count=1592436 253224 11808 34112 75930 130214 11336 43680 594132 173988
internal_value=0 0.000392055 -6.53742e-05 -0.00922125 0.00154605 0.0109473 -0.00151548 0.0023116 0.0162106
internal_weight=0 145427 143313 21448 121864 29936.5 91928 82809.8 28422.6
internal_count=2920860 1328424 1316616 329154 987462 219436 768026 637812 208100
is_linear=0
shrinkage=0.1


Tree=49
num_leaves=10
num_cat=0
split_feature=4 4 2 2 0 0 6 2 0
split_gain=858.741 208.462 221.812 364.739 471.928 289.249 206.342 223.352 712.426
threshold=1.0000000180025095e-35 0.29166666666666669 10.500000000000002 4.5000000000000009 -14.749999999999998 -14.749999999999998 0.20833333333333334 10.500000000000002 -25.849999999999998
decision_type=2 2 2 2 2 2 2 2 2
left_child=-1 6 3 4 -3 -5 7 -2 -9
right_child=1 2 -4 5 -6 -7 -8 8 -10
leaf_value=-0.10005387331389021 -0.002007724447402649 0.0090472644622377855 -0.011807219824550845 0.0099686396455108926 -0.05513291190413197 0.038491962229551757 -0.010520162386892091 -0.024344588998149858 0.019177290668951928
leaf_weight=857.00821559526958 77840.460707539693 4250.2459667809308 4378.403163138777 8963.3531158342957 1568.5224181879312 5892.4857924096286 20518.539179306477 4841.5552457235754 16855.245358467102
leaf_count=1592436 849850 26592 22648 39888 18704 28056 172716 61306 108664
internal_value=0 0.00034234 0.00863948 0.0129696 -0.00825331 0.0212823 -0.00138909 0.000493183 0.00946556
internal_weight=0 145109 25053 20674.6 5818.77 14855.8 120056 99537.3 21696.8
internal_count=2920860 1328424 135888 113240 45296 67944 1192536 1019820 169970
is_linear=0
shrinkage=0.1


Tree=50
num_leaves=10
num_cat=0
split_feature=4 2 0 1 2 0 0 4 5
split_gain=776.84 190.729 309.807 227.616 205.153 869.383 937.177 356.643 294.285
threshold=1.0000000180025095e-35 11.500000000000002 -15.549999999999999 142.35000000000005 10.500000000000002 -26.749999999999996 -14.749999999999998 0.20833333333333334 1.0000000180025095e-35
decision_type=2 2 2 2 2 2 2 2 2
left_child=-1 4 -3 -4 7 8 -7 -2 -6
right_child=1 2 3 -5 5 6 -8 -9 -10
leaf_value=-0.10004874304675 -0.0043214921125493662 -0.0037196628500235085 -0.058979671718056528 0.013448539400941826 0.018278020800093935 0.038130895095855953 -0.026264588219416286 0.007167580045038386 -0.050280047176652742
leaf_weight=775.49086093052756 72439.672916446812 10561.808594046161 1946.658752925694 558.35145172476768 831.43042315542698 10067.909306667745 2914.179301738739 43090.60555336345 2535.3861853964627
leaf_count=1592436 849920 90175 16633 3894 8856 58601 15710 257100 27535
internal_value=0 0.000305586 -0.0112185 -0.0428359 0.00144742 0.0119321 0.0236756 -3.62858e-05 -0.0333497
internal_weight=0 144946 13066.8 2505.01 131879 16348.9 12982.1 115530 3366.82
internal_count=2920860 1328424 110702 20527 1217722 110702 74311 1107020 36391
is_linear=0
shrinkage=0.1


Tree=51
num_leaves=10
num_cat=0
split_feature=4 4 6 7 0 2 1 2 2
split_gain=702.72 172.144 200.695 177.484 428.095 372.131 665.217 406.297 293.391
threshold=1.0000000180025095e-35 0.37500000000000006 0.37500000000000006 1.0000000180025095e-35 -13.949999999999998 4.5000000000000009 148.85000000000005 3.5000000000000004 7.5000000000000009
decision_type=2 2 2 2 2 2 2 2 2
left_child=-1 2 3 -2 5 6 7 -5 -6
right_child=1 -3 -4 4 8 -7 -8 -9 -10
leaf_value=-0.10004410544410974 -0.0020203601917375765 0.012125962664605283 -0.021401832348655017 0.0011919630756921501 0.060442837545861078 -0.0072550703928860125 -0.0535265690546625 0.050297239519382565 0.011392059184947512
leaf_weight=701.72403842350468 99613.16582881473 11289.983213959262 4538.4887459082529 2839.2550148256123 2241.0258617661893 16369.674677617848 1094.1126069873571 4144.4828768074512 2674.9831691160798
leaf_count=1592436 1082312 60720 30504 16195 10708 89475 6744 19366 12400
internal_value=0 0.000269024 -0.000733593 -6.31003e-06 0.00682618 0.00141172 0.0189749 0.0303334 0.0337525
internal_weight=0 144805 133515 128977 29363.5 24447.5 8077.85 6983.74 4916.01
internal_count=2920860 1328424 1267704 1237200 154888 131780 42305 35561 23108
is_linear=0
shrinkage=0.1


Tree=52
num_leaves=10
num_cat=0
split_feature=4 4 4 2 2 0 3 1 1
split_gain=635.762 167.331 154.397 167.37 317.656 201.874 707.605 396.476 490.011
threshold=1.0000000180025095e-35 0.87500000000000011 0.12500000000000003 1.5000000000000002 2.5000000000000004 -29.449999999999996 2.7083333333333335 138.45000000000002 120.95000000000002
decision_type=2 2 2 2 2 2 2 2 2
left_child=-1 2 3 5 -5 6 -2 8 -7
right_child=1 -3 -4 4 -6 7 -8 -9 -10
leaf_value=-0.10003991043362964 -0.045883433836100739 0.10081228951242766 0.0025204114914460954 -0.041930373686104888 -0.0038067420832996949 0.14642237640343667 0.49774803125234474 0.10478965510399202 -0.025792501011433391
leaf_weight=634.97144937305711 639.18601314350963 165.24899580329657 94020.564667054452 2295.4010868277401 45685.277239317074 200.5444693248719 24.874967064708471 603.69733794778585 938.01303810812533
leaf_count=1592436 13789 1716 655548 55930 559300 3789 541 12631 25180
internal_value=0 0.000241786 0.000126701 -0.00433989 -0.00563058 0.0213958 -0.0255196 0.0392777 0.00454127
internal_weight=0 144573 144408 50387 47980.7 2406.32 664.061 1742.25 1138.56
internal_count=2920860 1328424 1326708 671160 615230 55930 14330 41600 28969
is_linear=0
shrinkage=0.1


Tree=53
num_leaves=10
num_cat=0
split_feature=4 4 6 7 0 1 2 1 1
split_gain=575.116 150.081 148.486 151.77 513.785 326.269 503.316 289.116 273.411
threshold=1.0000000180025095e-35 0.62500000000000011 0.45833333333333343 1.5000000000000002 -13.449999999999998 126.05000000000001 8.5000000000000018 118.15000000000002 135.25000000000003
decision_type=2 2 2 2 2 2 2 2 2
left_child=-1 2 3 -2 7 -6 -7 -5 -8
right_child=1 -3 -4 4 5 6 8 -9 -10
leaf_value=-0.10003611260583223 -0.001145064887421937 0.040761928695652039 -0.021382191101290689 0.036258650047844301 0.097762351660443184 0.052482260896123026 -0.082736491766614281 -0.0029000801904817165 0.010411144428216603
leaf_weight=574.56663848098833 113948.66591623984 906.93678965047002 3189.2388918586075 2084.6458019167185 752.76423171907663 2505.8793787620962 490.16905627399683 19731.433713588864 882.37507702410221
leaf_count=1592436 1169441 5808 19080 10456 3603 12108 2251 101549 4128
internal_value=0 0.000210382 -4.57564e-05 0.000438923 0.00726357 0.0375148 0.0258213 0.000841751 -0.0228542
internal_weight=0 144492 143585 140396 26447.3 4631.19 3878.42 21816.1 1372.54
internal_count=2920860 1328424 1322616 1303536 134095 22090 18487 112005 6379
is_linear=0
shrinkage=0.1


Tree=54
num_leaves=10
num_cat=0
split_feature=4 2 0 0 1 0 0 1 1
split_gain=520.355 143.968 267.815 200.349 231.629 616.352 323.902 201.052 229.782
threshold=1.0000000180025095e-35 11.500000000000002 -15.549999999999999 -31.049999999999997 134.05000000000004 -22.949999999999996 -21.749999999999996 139.15000000000001 144.85000000000005
decision_type=2 2 2 2 2 2 2 2 2
left_child=-1 -2 3 -3 6 -6 -5 -7 -9
right_child=1 2 -4 4 5 7 -8 8 -10
leaf_value=-0.10003267089126994 0.0011811417324591377 -0.042636888883027912 -0.039801898682346765 0.019468309243065841 -0.018319049254258309 0.015056846152853562 -0.032476230600313287 0.11535931699986648 0.032864066285545425
leaf_weight=519.90636637585703 131418.91735910065 1134.9315197076648 2428.9576436579227 1944.8920280151069 2179.3107237033546 729.07664393633604 3136.0382995530963 787.47115372121334 591.07863259315491
leaf_count=1592436 1217722 24329 20527 14679 15479 4828 22251 4945 3664
internal_value=0 0.000190484 -0.00987708 -0.00295643 0.00185092 0.0189697 -0.0125928 0.0575268 0.079988
internal_weight=0 144351 12931.8 10502.8 9367.87 4286.94 5080.93 2107.63 1378.55
internal_count=2920860 1328424 110702 90175 65846 28916 36930 13437 8609
is_linear=0
shrinkage=0.1


Tree=55
num_leaves=10
num_cat=0
split_feature=4 4 2 0 2 0 0 1 0
split_gain=470.759 140.439 135.404 591.619 258.683 1348.04 933.083 1016.66 840.654
threshold=1.0000000180025095e-35 0.95833333333333337 3.5000000000000004 -17.249999999999996 5.5000000000000009 -12.449999999999998 -32.649999999999999 118.75000000000001 -33.04999999999999
decision_type=2 2 2 2 2 2 2 2 2
left_child=-1 2 3 -2 5 8 -6 -8 -4
right_child=1 -3 4 -5 6 -7 7 -9 -10
leaf_value=-0.10002955458579298 -0.00036877760803969296 0.11622772620780196 0.044886917080886629 -0.047226097955007984 -0.032149588654356215 -0.085366103686421918 -0.046158474646940353 0.0045344510992528404 0.004615610403209406
leaf_weight=470.44463098060805 18424.532484387979 104.18423520028591 6785.2569044791162 3156.1336113959551 8841.3340658824891 1429.6883584745228 4163.4771904665977 79469.581900080666 21958.607140250504
leaf_count=1592436 235908 1284 34230 95877 130704 11056 43890 599571 175904
internal_value=0 0.000166721 8.28837e-05 -0.00722158 0.00136815 0.00940806 -0.0012552 0.00201082 0.014122
internal_weight=0 144333 144229 21580.7 122648 30173.6 92474.4 83633.1 28743.9
internal_count=2920860 1328424 1327140 331785 995355 221190 774165 643461 210134
is_linear=0
shrinkage=0.1


Tree=56
num_leaves=10
num_cat=0
split_feature=4 4 5 2 0 2 1 0 1
split_gain=425.864 142.816 153.43 418.571 202.28 178.917 1068.29 1305.43 1026.74
threshold=1.0000000180025095e-35 0.12500000000000003 0.12500000000000003 9.5000000000000018 -28.649999999999995 6.5000000000000009 134.25000000000003 -33.04999999999999 134.85000000000005
decision_type=2 2 2 2 2 2 2 2 2
left_child=-1 -2 3 4 -3 8 -7 -8 -4
right_child=1 2 5 -5 -6 6 7 -9 -10
leaf_value=-0.10002675017686474 -0.0041624608005805547 0.020689665224331806 0.024681090022295262 0.031637784068562817 -0.0070087019433215259 -0.021495935248577833 -0.050550944781598099 0.020645612209569671 -0.010542321566397637
leaf_weight=425.68724503205158 50219.100471677259 3592.4409274384379 15436.940594558604 6263.8482897058129 9909.5101774837822 18905.54018862173 2981.2244132384658 18916.580235168338 17838.491585399024
leaf_count=1592436 671160 25551 124578 35844 81981 119862 32718 104364 132366
internal_value=0 0.000141622 0.00244487 0.0102727 0.000360955 0.00035624 -0.00408181 0.0109527 0.00579831
internal_weight=0 144064 93844.6 19765.8 13502 74078.8 40803.3 21897.8 33275.4
internal_count=2920860 1328424 657264 143376 107532 513888 256944 137082 256944
is_linear=0
shrinkage=0.1


Tree=57
num_leaves=10
num_cat=0
split_feature=4 4 6 4 2 0 3 0 2
split_gain=385.276 138.259 174.585 155.486 137.186 712.976 525.951 361.124 762.737
threshold=1.0000000180025095e-35 0.45833333333333343 0.29166666666666669 0.20833333333333334 9.5000000000000018 -15.649999999999997 1.0416666666666667 -15.749999999999998 4.5000000000000009
decision_type=2 2 2 2 2 2 2 2 2
left_child=-1 2 3 4 7 6 -6 8 -2
right_child=1 -3 -4 -5 5 -7 -8 -9 -10
leaf_value=-0.10002419649818557 0.0067079510269295473 0.016591351259948057 -0.01097108052228926 0.0062167631077462877 -0.0042542763380059327 -0.033800874179762713 0.024151809450990464 0.015362828135735813 -0.018280469506316784
leaf_weight=385.18706244416535 21397.190937018022 4922.4007669519633 14194.167620081455 36558.218145212159 12875.611133746803 4305.0191275887191 13200.929266881198 7973.4419538667426 28465.122702885419
leaf_count=1592436 284912 27084 99204 221232 123267 30126 91833 94626 356140
internal_value=0 0.000121093 -0.000462295 0.00073316 -0.00153931 0.00390159 0.010126 -0.00439745 -0.0075573
internal_weight=0 143892 138970 124776 88217.3 30381.6 26076.5 57835.8 49862.3
internal_count=2920860 1328424 1301340 1202136 980904 245226 215100 735678 641052
is_linear=0
shrinkage=0.1


end of trees

feature_importances:
fire_past=141
month=139
latitude=131
longitude=40
cnt_last_year_month=29
fire_last_year=25
cnt_last_year=11
cnt_past=6

parameters:
[boosting: gbdt]
[objective: binary]
[metric: auc]
[tree_learner: serial]
[device_type: cpu]
[data: ]
[valid: ]
[num_iterations: 500]
[learning_rate: 0.1]
[num_leaves: 10]
[num_threads: 0]
[deterministic: 0]
[force_col_wise: 0]
[force_row_wise: 0]
[histogram_pool_size: -1]
[max_depth: 8]
[min_data_in_leaf: 20]
[min_sum_hessian_in_leaf: 0.001]
[bagging_fraction: 1]
[pos_bagging_fraction: 1]
[neg_bagging_fraction: 1]
[bagging_freq: 0]
[bagging_seed: 3]
[feature_fraction: 1]
[feature_fraction_bynode: 1]
[feature_fraction_seed: 2]
[extra_trees: 0]
[extra_seed: 6]
[early_stopping_round: 4]
[first_metric_only: 0]
[max_delta_step: 0]
[lambda_l1: 0]
[lambda_l2: 0]
[linear_lambda: 0]
[min_gain_to_split: 0]
[drop_rate: 0.1]
[max_drop: 50]
[skip_drop: 0.5]
[xgboost_dart_mode: 0]
[uniform_drop: 0]
[drop_seed: 4]
[top_rate: 0.2]
[other_rate: 0.1]
[min_data_per_group: 100]
[max_cat_threshold: 32]
[cat_l2: 10]
[cat_smooth: 10]
[max_cat_to_onehot: 4]
[top_k: 20]
[monotone_constraints: ]
[monotone_constraints_method: basic]
[monotone_penalty: 0]
[feature_contri: ]
[forcedsplits_filename: ]
[refit_decay_rate: 0.9]
[cegb_tradeoff: 1]
[cegb_penalty_split: 0]
[cegb_penalty_feature_lazy: ]
[cegb_penalty_feature_coupled: ]
[path_smooth: 0]
[interaction_constraints: ]
[verbosity: 1]
[saved_feature_importance_type: 0]
[linear_tree: 0]
[max_bin: 255]
[max_bin_by_feature: ]
[min_data_in_bin: 3]
[bin_construct_sample_cnt: 200000]
[data_random_seed: 1]
[is_enable_sparse: 1]
[enable_bundle: 1]
[use_missing: 1]
[zero_as_missing: 0]
[feature_pre_filter: 1]
[pre_partition: 0]
[two_round: 0]
[header: 0]
[label_column: ]
[weight_column: ]
[group_column: ]
[ignore_column: ]
[categorical_feature: ]
[forcedbins_filename: ]
[precise_float_parser: 0]
[objective_seed: 5]
[num_class: 1]
[is_unbalance: 0]
[scale_pos_weight: 1]
[sigmoid: 1]
[boost_from_average: 1]
[reg_sqrt: 0]
[alpha: 0.9]
[fair_c: 1]
[poisson_max_delta_step: 0.7]
[tweedie_variance_power: 1.5]
[lambdarank_truncation_level: 30]
[lambdarank_norm: 1]
[label_gain: ]
[eval_at: ]
[multi_error_top_k: 1]
[auc_mu_weights: ]
[num_machines: 1]
[local_listen_port: 12400]
[time_out: 120]
[machine_list_filename: ]
[machines: ]
[gpu_platform_id: -1]
[gpu_device_id: -1]
[gpu_use_dp: 0]
[num_gpu: 1]

end of parameters

pandas_categorical:[]
